digraph Tree {
node [shape=box] ;
0 [label="X[5] <= 0.5\ngini = 0.473\nsamples = 891\nvalue = [549, 342]"] ;
1 [label="X[0] <= 1.5\ngini = 0.264\nsamples = 517\nvalue = [436, 81]"] ;
0 -> 1 [labeldistance=2.5, labelangle=45, headlabel="True"] ;
2 [label="X[6] <= 4.5\ngini = 0.452\nsamples = 107\nvalue = [70, 37]"] ;
1 -> 2 ;
3 [label="X[6] <= 3.5\ngini = 0.489\nsamples = 68\nvalue = [39, 29]"] ;
2 -> 3 ;
4 [label="X[2] <= 2.0\ngini = 0.454\nsamples = 43\nvalue = [28, 15]"] ;
3 -> 4 ;
5 [label="X[3] <= 1.5\ngini = 0.459\nsamples = 42\nvalue = [27, 15]"] ;
4 -> 5 ;
6 [label="X[6] <= 2.0\ngini = 0.455\nsamples = 40\nvalue = [26, 14]"] ;
5 -> 6 ;
7 [label="gini = 0.0\nsamples = 2\nvalue = [2, 0]"] ;
6 -> 7 ;
8 [label="X[2] <= 0.5\ngini = 0.465\nsamples = 38\nvalue = [24, 14]"] ;
6 -> 8 ;
9 [label="X[4] <= 0.5\ngini = 0.444\nsamples = 33\nvalue = [22, 11]"] ;
8 -> 9 ;
10 [label="X[3] <= 0.5\ngini = 0.444\nsamples = 21\nvalue = [14, 7]"] ;
9 -> 10 ;
11 [label="gini = 0.455\nsamples = 20\nvalue = [13, 7]"] ;
10 -> 11 ;
12 [label="gini = 0.0\nsamples = 1\nvalue = [1, 0]"] ;
10 -> 12 ;
13 [label="X[3] <= 0.5\ngini = 0.444\nsamples = 12\nvalue = [8, 4]"] ;
9 -> 13 ;
14 [label="gini = 0.42\nsamples = 10\nvalue = [7, 3]"] ;
13 -> 14 ;
15 [label="gini = 0.5\nsamples = 2\nvalue = [1, 1]"] ;
13 -> 15 ;
16 [label="X[4] <= 0.5\ngini = 0.48\nsamples = 5\nvalue = [2, 3]"] ;
8 -> 16 ;
17 [label="gini = 0.5\nsamples = 2\nvalue = [1, 1]"] ;
16 -> 17 ;
18 [label="gini = 0.444\nsamples = 3\nvalue = [1, 2]"] ;
16 -> 18 ;
19 [label="X[6] <= 2.0\ngini = 0.5\nsamples = 2\nvalue = [1, 1]"] ;
5 -> 19 ;
20 [label="gini = 0.0\nsamples = 1\nvalue = [0, 1]"] ;
19 -> 20 ;
21 [label="gini = 0.0\nsamples = 1\nvalue = [1, 0]"] ;
19 -> 21 ;
22 [label="gini = 0.0\nsamples = 1\nvalue = [1, 0]"] ;
4 -> 22 ;
23 [label="X[3] <= 1.5\ngini = 0.493\nsamples = 25\nvalue = [11, 14]"] ;
3 -> 23 ;
24 [label="X[2] <= 0.5\ngini = 0.497\nsamples = 24\nvalue = [11, 13]"] ;
23 -> 24 ;
25 [label="X[3] <= 0.5\ngini = 0.484\nsamples = 17\nvalue = [7, 10]"] ;
24 -> 25 ;
26 [label="X[4] <= 0.5\ngini = 0.459\nsamples = 14\nvalue = [5, 9]"] ;
25 -> 26 ;
27 [label="gini = 0.48\nsamples = 10\nvalue = [4, 6]"] ;
26 -> 27 ;
28 [label="gini = 0.375\nsamples = 4\nvalue = [1, 3]"] ;
26 -> 28 ;
29 [label="X[4] <= 0.5\ngini = 0.444\nsamples = 3\nvalue = [2, 1]"] ;
25 -> 29 ;
30 [label="gini = 0.0\nsamples = 1\nvalue = [1, 0]"] ;
29 -> 30 ;
31 [label="gini = 0.5\nsamples = 2\nvalue = [1, 1]"] ;
29 -> 31 ;
32 [label="X[3] <= 0.5\ngini = 0.49\nsamples = 7\nvalue = [4, 3]"] ;
24 -> 32 ;
33 [label="gini = 0.444\nsamples = 6\nvalue = [4, 2]"] ;
32 -> 33 ;
34 [label="gini = 0.0\nsamples = 1\nvalue = [0, 1]"] ;
32 -> 34 ;
35 [label="gini = 0.0\nsamples = 1\nvalue = [0, 1]"] ;
23 -> 35 ;
36 [label="X[2] <= 0.5\ngini = 0.326\nsamples = 39\nvalue = [31, 8]"] ;
2 -> 36 ;
37 [label="X[4] <= 0.5\ngini = 0.198\nsamples = 27\nvalue = [24, 3]"] ;
36 -> 37 ;
38 [label="X[3] <= 0.5\ngini = 0.266\nsamples = 19\nvalue = [16, 3]"] ;
37 -> 38 ;
39 [label="gini = 0.278\nsamples = 18\nvalue = [15, 3]"] ;
38 -> 39 ;
40 [label="gini = 0.0\nsamples = 1\nvalue = [1, 0]"] ;
38 -> 40 ;
41 [label="gini = 0.0\nsamples = 8\nvalue = [8, 0]"] ;
37 -> 41 ;
42 [label="X[4] <= 0.5\ngini = 0.486\nsamples = 12\nvalue = [7, 5]"] ;
36 -> 42 ;
43 [label="X[3] <= 0.5\ngini = 0.408\nsamples = 7\nvalue = [5, 2]"] ;
42 -> 43 ;
44 [label="gini = 0.48\nsamples = 5\nvalue = [3, 2]"] ;
43 -> 44 ;
45 [label="gini = 0.0\nsamples = 2\nvalue = [2, 0]"] ;
43 -> 45 ;
46 [label="X[3] <= 0.5\ngini = 0.48\nsamples = 5\nvalue = [2, 3]"] ;
42 -> 46 ;
47 [label="gini = 0.444\nsamples = 3\nvalue = [1, 2]"] ;
46 -> 47 ;
48 [label="gini = 0.5\nsamples = 2\nvalue = [1, 1]"] ;
46 -> 48 ;
49 [label="X[3] <= 0.5\ngini = 0.192\nsamples = 410\nvalue = [366, 44]"] ;
1 -> 49 ;
50 [label="X[2] <= 0.5\ngini = 0.202\nsamples = 377\nvalue = [334, 43]"] ;
49 -> 50 ;
51 [label="X[4] <= 1.5\ngini = 0.208\nsamples = 330\nvalue = [291, 39]"] ;
50 -> 51 ;
52 [label="X[6] <= 3.5\ngini = 0.216\nsamples = 301\nvalue = [264, 37]"] ;
51 -> 52 ;
53 [label="X[4] <= 0.5\ngini = 0.201\nsamples = 212\nvalue = [188, 24]"] ;
52 -> 53 ;
54 [label="X[0] <= 2.5\ngini = 0.178\nsamples = 182\nvalue = [164, 18]"] ;
53 -> 54 ;
55 [label="X[6] <= 2.0\ngini = 0.105\nsamples = 36\nvalue = [34, 2]"] ;
54 -> 55 ;
56 [label="gini = 0.198\nsamples = 9\nvalue = [8, 1]"] ;
55 -> 56 ;
57 [label="gini = 0.071\nsamples = 27\nvalue = [26, 1]"] ;
55 -> 57 ;
58 [label="X[6] <= 2.0\ngini = 0.195\nsamples = 146\nvalue = [130, 16]"] ;
54 -> 58 ;
59 [label="gini = 0.161\nsamples = 34\nvalue = [31, 3]"] ;
58 -> 59 ;
60 [label="gini = 0.205\nsamples = 112\nvalue = [99, 13]"] ;
58 -> 60 ;
61 [label="X[6] <= 2.0\ngini = 0.32\nsamples = 30\nvalue = [24, 6]"] ;
53 -> 61 ;
62 [label="gini = 0.444\nsamples = 3\nvalue = [2, 1]"] ;
61 -> 62 ;
63 [label="X[0] <= 2.5\ngini = 0.302\nsamples = 27\nvalue = [22, 5]"] ;
61 -> 63 ;
64 [label="gini = 0.444\nsamples = 3\nvalue = [2, 1]"] ;
63 -> 64 ;
65 [label="gini = 0.278\nsamples = 24\nvalue = [20, 4]"] ;
63 -> 65 ;
66 [label="X[4] <= 0.5\ngini = 0.249\nsamples = 89\nvalue = [76, 13]"] ;
52 -> 66 ;
67 [label="X[6] <= 4.5\ngini = 0.267\nsamples = 82\nvalue = [69, 13]"] ;
66 -> 67 ;
68 [label="X[0] <= 2.5\ngini = 0.302\nsamples = 54\nvalue = [44, 10]"] ;
67 -> 68 ;
69 [label="gini = 0.26\nsamples = 13\nvalue = [11, 2]"] ;
68 -> 69 ;
70 [label="gini = 0.314\nsamples = 41\nvalue = [33, 8]"] ;
68 -> 70 ;
71 [label="X[0] <= 2.5\ngini = 0.191\nsamples = 28\nvalue = [25, 3]"] ;
67 -> 71 ;
72 [label="gini = 0.26\nsamples = 13\nvalue = [11, 2]"] ;
71 -> 72 ;
73 [label="gini = 0.124\nsamples = 15\nvalue = [14, 1]"] ;
71 -> 73 ;
74 [label="gini = 0.0\nsamples = 7\nvalue = [7, 0]"] ;
66 -> 74 ;
75 [label="X[6] <= 3.5\ngini = 0.128\nsamples = 29\nvalue = [27, 2]"] ;
51 -> 75 ;
76 [label="X[6] <= 2.0\ngini = 0.153\nsamples = 24\nvalue = [22, 2]"] ;
75 -> 76 ;
77 [label="gini = 0.0\nsamples = 1\nvalue = [1, 0]"] ;
76 -> 77 ;
78 [label="gini = 0.159\nsamples = 23\nvalue = [21, 2]"] ;
76 -> 78 ;
79 [label="gini = 0.0\nsamples = 5\nvalue = [5, 0]"] ;
75 -> 79 ;
80 [label="X[6] <= 2.0\ngini = 0.156\nsamples = 47\nvalue = [43, 4]"] ;
50 -> 80 ;
81 [label="X[2] <= 1.5\ngini = 0.375\nsamples = 4\nvalue = [3, 1]"] ;
80 -> 81 ;
82 [label="gini = 0.444\nsamples = 3\nvalue = [2, 1]"] ;
81 -> 82 ;
83 [label="gini = 0.0\nsamples = 1\nvalue = [1, 0]"] ;
81 -> 83 ;
84 [label="X[4] <= 1.5\ngini = 0.13\nsamples = 43\nvalue = [40, 3]"] ;
80 -> 84 ;
85 [label="X[2] <= 1.5\ngini = 0.1\nsamples = 38\nvalue = [36, 2]"] ;
84 -> 85 ;
86 [label="X[4] <= 0.5\ngini = 0.128\nsamples = 29\nvalue = [27, 2]"] ;
85 -> 86 ;
87 [label="X[6] <= 3.5\ngini = 0.153\nsamples = 24\nvalue = [22, 2]"] ;
86 -> 87 ;
88 [label="X[0] <= 2.5\ngini = 0.124\nsamples = 15\nvalue = [14, 1]"] ;
87 -> 88 ;
89 [label="gini = 0.0\nsamples = 3\nvalue = [3, 0]"] ;
88 -> 89 ;
90 [label="gini = 0.153\nsamples = 12\nvalue = [11, 1]"] ;
88 -> 90 ;
91 [label="X[0] <= 2.5\ngini = 0.198\nsamples = 9\nvalue = [8, 1]"] ;
87 -> 91 ;
92 [label="gini = 0.245\nsamples = 7\nvalue = [6, 1]"] ;
91 -> 92 ;
93 [label="gini = 0.0\nsamples = 2\nvalue = [2, 0]"] ;
91 -> 93 ;
94 [label="gini = 0.0\nsamples = 5\nvalue = [5, 0]"] ;
86 -> 94 ;
95 [label="gini = 0.0\nsamples = 9\nvalue = [9, 0]"] ;
85 -> 95 ;
96 [label="X[2] <= 1.5\ngini = 0.32\nsamples = 5\nvalue = [4, 1]"] ;
84 -> 96 ;
97 [label="gini = 0.0\nsamples = 4\nvalue = [4, 0]"] ;
96 -> 97 ;
98 [label="gini = 0.0\nsamples = 1\nvalue = [0, 1]"] ;
96 -> 98 ;
99 [label="X[4] <= 0.5\ngini = 0.059\nsamples = 33\nvalue = [32, 1]"] ;
49 -> 99 ;
100 [label="gini = 0.0\nsamples = 27\nvalue = [27, 0]"] ;
99 -> 100 ;
101 [label="X[6] <= 2.0\ngini = 0.278\nsamples = 6\nvalue = [5, 1]"] ;
99 -> 101 ;
102 [label="gini = 0.444\nsamples = 3\nvalue = [2, 1]"] ;
101 -> 102 ;
103 [label="gini = 0.0\nsamples = 3\nvalue = [3, 0]"] ;
101 -> 103 ;
104 [label="X[0] <= 2.5\ngini = 0.422\nsamples = 374\nvalue = [113, 261]"] ;
0 -> 104 [labeldistance=2.5, labelangle=-45, headlabel="False"] ;
105 [label="X[5] <= 3.5\ngini = 0.209\nsamples = 202\nvalue = [24, 178]"] ;
104 -> 105 ;
106 [label="X[4] <= 0.5\ngini = 0.098\nsamples = 175\nvalue = [9, 166]"] ;
105 -> 106 ;
107 [label="X[0] <= 1.5\ngini = 0.12\nsamples = 125\nvalue = [8, 117]"] ;
106 -> 107 ;
108 [label="X[6] <= 0.5\ngini = 0.075\nsamples = 51\nvalue = [2, 49]"] ;
107 -> 108 ;
109 [label="X[1] <= 0.5\ngini = 0.444\nsamples = 3\nvalue = [1, 2]"] ;
108 -> 109 ;
110 [label="gini = 0.0\nsamples = 2\nvalue = [0, 2]"] ;
109 -> 110 ;
111 [label="gini = 0.0\nsamples = 1\nvalue = [1, 0]"] ;
109 -> 111 ;
112 [label="X[3] <= 1.5\ngini = 0.041\nsamples = 48\nvalue = [1, 47]"] ;
108 -> 112 ;
113 [label="gini = 0.0\nsamples = 38\nvalue = [0, 38]"] ;
112 -> 113 ;
114 [label="X[5] <= 1.5\ngini = 0.18\nsamples = 10\nvalue = [1, 9]"] ;
112 -> 114 ;
115 [label="gini = 0.0\nsamples = 7\nvalue = [0, 7]"] ;
114 -> 115 ;
116 [label="X[5] <= 2.5\ngini = 0.444\nsamples = 3\nvalue = [1, 2]"] ;
114 -> 116 ;
117 [label="X[6] <= 3.5\ngini = 0.5\nsamples = 2\nvalue = [1, 1]"] ;
116 -> 117 ;
118 [label="gini = 0.0\nsamples = 1\nvalue = [1, 0]"] ;
117 -> 118 ;
119 [label="gini = 0.0\nsamples = 1\nvalue = [0, 1]"] ;
117 -> 119 ;
120 [label="gini = 0.0\nsamples = 1\nvalue = [0, 1]"] ;
116 -> 120 ;
121 [label="X[3] <= 0.5\ngini = 0.149\nsamples = 74\nvalue = [6, 68]"] ;
107 -> 121 ;
122 [label="X[6] <= 2.0\ngini = 0.234\nsamples = 37\nvalue = [5, 32]"] ;
121 -> 122 ;
123 [label="gini = 0.0\nsamples = 3\nvalue = [0, 3]"] ;
122 -> 123 ;
124 [label="X[2] <= 0.5\ngini = 0.251\nsamples = 34\nvalue = [5, 29]"] ;
122 -> 124 ;
125 [label="X[6] <= 4.5\ngini = 0.211\nsamples = 25\nvalue = [3, 22]"] ;
124 -> 125 ;
126 [label="X[5] <= 1.5\ngini = 0.172\nsamples = 21\nvalue = [2, 19]"] ;
125 -> 126 ;
127 [label="X[6] <= 3.5\ngini = 0.26\nsamples = 13\nvalue = [2, 11]"] ;
126 -> 127 ;
128 [label="gini = 0.245\nsamples = 7\nvalue = [1, 6]"] ;
127 -> 128 ;
129 [label="gini = 0.278\nsamples = 6\nvalue = [1, 5]"] ;
127 -> 129 ;
130 [label="gini = 0.0\nsamples = 8\nvalue = [0, 8]"] ;
126 -> 130 ;
131 [label="X[5] <= 1.5\ngini = 0.375\nsamples = 4\nvalue = [1, 3]"] ;
125 -> 131 ;
132 [label="gini = 0.0\nsamples = 2\nvalue = [0, 2]"] ;
131 -> 132 ;
133 [label="gini = 0.5\nsamples = 2\nvalue = [1, 1]"] ;
131 -> 133 ;
134 [label="X[2] <= 2.0\ngini = 0.346\nsamples = 9\nvalue = [2, 7]"] ;
124 -> 134 ;
135 [label="X[6] <= 3.5\ngini = 0.375\nsamples = 8\nvalue = [2, 6]"] ;
134 -> 135 ;
136 [label="gini = 0.32\nsamples = 5\nvalue = [1, 4]"] ;
135 -> 136 ;
137 [label="gini = 0.444\nsamples = 3\nvalue = [1, 2]"] ;
135 -> 137 ;
138 [label="gini = 0.0\nsamples = 1\nvalue = [0, 1]"] ;
134 -> 138 ;
139 [label="X[6] <= 2.0\ngini = 0.053\nsamples = 37\nvalue = [1, 36]"] ;
121 -> 139 ;
140 [label="gini = 0.0\nsamples = 18\nvalue = [0, 18]"] ;
139 -> 140 ;
141 [label="X[6] <= 3.5\ngini = 0.1\nsamples = 19\nvalue = [1, 18]"] ;
139 -> 141 ;
142 [label="X[3] <= 1.5\ngini = 0.219\nsamples = 8\nvalue = [1, 7]"] ;
141 -> 142 ;
143 [label="X[5] <= 1.5\ngini = 0.32\nsamples = 5\nvalue = [1, 4]"] ;
142 -> 143 ;
144 [label="gini = 0.0\nsamples = 1\nvalue = [0, 1]"] ;
143 -> 144 ;
145 [label="X[2] <= 0.5\ngini = 0.375\nsamples = 4\nvalue = [1, 3]"] ;
143 -> 145 ;
146 [label="gini = 0.0\nsamples = 1\nvalue = [0, 1]"] ;
145 -> 146 ;
147 [label="X[2] <= 1.5\ngini = 0.444\nsamples = 3\nvalue = [1, 2]"] ;
145 -> 147 ;
148 [label="gini = 0.5\nsamples = 2\nvalue = [1, 1]"] ;
147 -> 148 ;
149 [label="gini = 0.0\nsamples = 1\nvalue = [0, 1]"] ;
147 -> 149 ;
150 [label="gini = 0.0\nsamples = 3\nvalue = [0, 3]"] ;
142 -> 150 ;
151 [label="gini = 0.0\nsamples = 11\nvalue = [0, 11]"] ;
141 -> 151 ;
152 [label="X[6] <= 4.5\ngini = 0.039\nsamples = 50\nvalue = [1, 49]"] ;
106 -> 152 ;
153 [label="gini = 0.0\nsamples = 40\nvalue = [0, 40]"] ;
152 -> 153 ;
154 [label="X[5] <= 1.5\ngini = 0.18\nsamples = 10\nvalue = [1, 9]"] ;
152 -> 154 ;
155 [label="X[2] <= 0.5\ngini = 0.375\nsamples = 4\nvalue = [1, 3]"] ;
154 -> 155 ;
156 [label="gini = 0.5\nsamples = 2\nvalue = [1, 1]"] ;
155 -> 156 ;
157 [label="gini = 0.0\nsamples = 2\nvalue = [0, 2]"] ;
155 -> 157 ;
158 [label="gini = 0.0\nsamples = 6\nvalue = [0, 6]"] ;
154 -> 158 ;
159 [label="X[1] <= 0.5\ngini = 0.494\nsamples = 27\nvalue = [15, 12]"] ;
105 -> 159 ;
160 [label="X[0] <= 1.5\ngini = 0.375\nsamples = 20\nvalue = [15, 5]"] ;
159 -> 160 ;
161 [label="X[6] <= 4.5\ngini = 0.486\nsamples = 12\nvalue = [7, 5]"] ;
160 -> 161 ;
162 [label="X[5] <= 5.5\ngini = 0.278\nsamples = 6\nvalue = [5, 1]"] ;
161 -> 162 ;
163 [label="X[4] <= 1.5\ngini = 0.444\nsamples = 3\nvalue = [2, 1]"] ;
162 -> 163 ;
164 [label="X[6] <= 3.5\ngini = 0.5\nsamples = 2\nvalue = [1, 1]"] ;
163 -> 164 ;
165 [label="gini = 0.0\nsamples = 1\nvalue = [1, 0]"] ;
164 -> 165 ;
166 [label="gini = 0.0\nsamples = 1\nvalue = [0, 1]"] ;
164 -> 166 ;
167 [label="gini = 0.0\nsamples = 1\nvalue = [1, 0]"] ;
163 -> 167 ;
168 [label="gini = 0.0\nsamples = 3\nvalue = [3, 0]"] ;
162 -> 168 ;
169 [label="X[3] <= 0.5\ngini = 0.444\nsamples = 6\nvalue = [2, 4]"] ;
161 -> 169 ;
170 [label="X[5] <= 6.5\ngini = 0.32\nsamples = 5\nvalue = [1, 4]"] ;
169 -> 170 ;
171 [label="X[4] <= 0.5\ngini = 0.444\nsamples = 3\nvalue = [1, 2]"] ;
170 -> 171 ;
172 [label="X[2] <= 1.0\ngini = 0.5\nsamples = 2\nvalue = [1, 1]"] ;
171 -> 172 ;
173 [label="gini = 0.0\nsamples = 1\nvalue = [1, 0]"] ;
172 -> 173 ;
174 [label="gini = 0.0\nsamples = 1\nvalue = [0, 1]"] ;
172 -> 174 ;
175 [label="gini = 0.0\nsamples = 1\nvalue = [0, 1]"] ;
171 -> 175 ;
176 [label="gini = 0.0\nsamples = 2\nvalue = [0, 2]"] ;
170 -> 176 ;
177 [label="gini = 0.0\nsamples = 1\nvalue = [1, 0]"] ;
169 -> 177 ;
178 [label="gini = 0.0\nsamples = 8\nvalue = [8, 0]"] ;
160 -> 178 ;
179 [label="gini = 0.0\nsamples = 7\nvalue = [0, 7]"] ;
159 -> 179 ;
180 [label="X[2] <= 2.5\ngini = 0.499\nsamples = 172\nvalue = [89, 83]"] ;
104 -> 180 ;
181 [label="X[6] <= 3.5\ngini = 0.487\nsamples = 136\nvalue = [57, 79]"] ;
180 -> 181 ;
182 [label="X[4] <= 0.5\ngini = 0.461\nsamples = 114\nvalue = [41, 73]"] ;
181 -> 182 ;
183 [label="X[1] <= 0.5\ngini = 0.499\nsamples = 58\nvalue = [28, 30]"] ;
182 -> 183 ;
184 [label="gini = 0.0\nsamples = 6\nvalue = [0, 6]"] ;
183 -> 184 ;
185 [label="X[2] <= 1.5\ngini = 0.497\nsamples = 52\nvalue = [28, 24]"] ;
183 -> 185 ;
186 [label="X[6] <= 0.5\ngini = 0.5\nsamples = 49\nvalue = [25, 24]"] ;
185 -> 186 ;
187 [label="X[2] <= 0.5\ngini = 0.408\nsamples = 7\nvalue = [2, 5]"] ;
186 -> 187 ;
188 [label="X[3] <= 0.5\ngini = 0.48\nsamples = 5\nvalue = [2, 3]"] ;
187 -> 188 ;
189 [label="gini = 0.0\nsamples = 1\nvalue = [0, 1]"] ;
188 -> 189 ;
190 [label="X[3] <= 1.5\ngini = 0.5\nsamples = 4\nvalue = [2, 2]"] ;
188 -> 190 ;
191 [label="gini = 0.5\nsamples = 2\nvalue = [1, 1]"] ;
190 -> 191 ;
192 [label="gini = 0.5\nsamples = 2\nvalue = [1, 1]"] ;
190 -> 192 ;
193 [label="gini = 0.0\nsamples = 2\nvalue = [0, 2]"] ;
187 -> 193 ;
194 [label="X[2] <= 0.5\ngini = 0.495\nsamples = 42\nvalue = [23, 19]"] ;
186 -> 194 ;
195 [label="X[3] <= 0.5\ngini = 0.499\nsamples = 29\nvalue = [14, 15]"] ;
194 -> 195 ;
196 [label="X[5] <= 1.5\ngini = 0.497\nsamples = 24\nvalue = [13, 11]"] ;
195 -> 196 ;
197 [label="X[6] <= 2.0\ngini = 0.499\nsamples = 23\nvalue = [12, 11]"] ;
196 -> 197 ;
198 [label="gini = 0.48\nsamples = 5\nvalue = [3, 2]"] ;
197 -> 198 ;
199 [label="gini = 0.5\nsamples = 18\nvalue = [9, 9]"] ;
197 -> 199 ;
200 [label="gini = 0.0\nsamples = 1\nvalue = [1, 0]"] ;
196 -> 200 ;
201 [label="X[3] <= 3.0\ngini = 0.32\nsamples = 5\nvalue = [1, 4]"] ;
195 -> 201 ;
202 [label="gini = 0.0\nsamples = 4\nvalue = [0, 4]"] ;
201 -> 202 ;
203 [label="gini = 0.0\nsamples = 1\nvalue = [1, 0]"] ;
201 -> 203 ;
204 [label="X[3] <= 0.5\ngini = 0.426\nsamples = 13\nvalue = [9, 4]"] ;
194 -> 204 ;
205 [label="X[5] <= 1.5\ngini = 0.494\nsamples = 9\nvalue = [5, 4]"] ;
204 -> 205 ;
206 [label="X[6] <= 2.0\ngini = 0.375\nsamples = 4\nvalue = [3, 1]"] ;
205 -> 206 ;
207 [label="gini = 0.5\nsamples = 2\nvalue = [1, 1]"] ;
206 -> 207 ;
208 [label="gini = 0.0\nsamples = 2\nvalue = [2, 0]"] ;
206 -> 208 ;
209 [label="X[6] <= 2.0\ngini = 0.48\nsamples = 5\nvalue = [2, 3]"] ;
205 -> 209 ;
210 [label="gini = 0.0\nsamples = 1\nvalue = [1, 0]"] ;
209 -> 210 ;
211 [label="gini = 0.375\nsamples = 4\nvalue = [1, 3]"] ;
209 -> 211 ;
212 [label="gini = 0.0\nsamples = 4\nvalue = [4, 0]"] ;
204 -> 212 ;
213 [label="gini = 0.0\nsamples = 3\nvalue = [3, 0]"] ;
185 -> 213 ;
214 [label="X[2] <= 1.5\ngini = 0.357\nsamples = 56\nvalue = [13, 43]"] ;
182 -> 214 ;
215 [label="X[1] <= 0.5\ngini = 0.375\nsamples = 52\nvalue = [13, 39]"] ;
214 -> 215 ;
216 [label="gini = 0.0\nsamples = 4\nvalue = [0, 4]"] ;
215 -> 216 ;
217 [label="X[4] <= 1.5\ngini = 0.395\nsamples = 48\nvalue = [13, 35]"] ;
215 -> 217 ;
218 [label="X[2] <= 0.5\ngini = 0.465\nsamples = 19\nvalue = [7, 12]"] ;
217 -> 218 ;
219 [label="X[6] <= 0.5\ngini = 0.375\nsamples = 12\nvalue = [3, 9]"] ;
218 -> 219 ;
220 [label="gini = 0.0\nsamples = 2\nvalue = [0, 2]"] ;
219 -> 220 ;
221 [label="X[5] <= 1.5\ngini = 0.42\nsamples = 10\nvalue = [3, 7]"] ;
219 -> 221 ;
222 [label="X[3] <= 0.5\ngini = 0.5\nsamples = 4\nvalue = [2, 2]"] ;
221 -> 222 ;
223 [label="gini = 0.444\nsamples = 3\nvalue = [1, 2]"] ;
222 -> 223 ;
224 [label="gini = 0.0\nsamples = 1\nvalue = [1, 0]"] ;
222 -> 224 ;
225 [label="X[3] <= 1.0\ngini = 0.278\nsamples = 6\nvalue = [1, 5]"] ;
221 -> 225 ;
226 [label="gini = 0.0\nsamples = 2\nvalue = [0, 2]"] ;
225 -> 226 ;
227 [label="X[3] <= 2.5\ngini = 0.375\nsamples = 4\nvalue = [1, 3]"] ;
225 -> 227 ;
228 [label="gini = 0.444\nsamples = 3\nvalue = [1, 2]"] ;
227 -> 228 ;
229 [label="gini = 0.0\nsamples = 1\nvalue = [0, 1]"] ;
227 -> 229 ;
230 [label="X[6] <= 0.5\ngini = 0.49\nsamples = 7\nvalue = [4, 3]"] ;
218 -> 230 ;
231 [label="gini = 0.0\nsamples = 1\nvalue = [1, 0]"] ;
230 -> 231 ;
232 [label="X[3] <= 0.5\ngini = 0.5\nsamples = 6\nvalue = [3, 3]"] ;
230 -> 232 ;
233 [label="X[6] <= 2.0\ngini = 0.48\nsamples = 5\nvalue = [3, 2]"] ;
232 -> 233 ;
234 [label="X[5] <= 1.5\ngini = 0.444\nsamples = 3\nvalue = [1, 2]"] ;
233 -> 234 ;
235 [label="gini = 0.5\nsamples = 2\nvalue = [1, 1]"] ;
234 -> 235 ;
236 [label="gini = 0.0\nsamples = 1\nvalue = [0, 1]"] ;
234 -> 236 ;
237 [label="gini = 0.0\nsamples = 2\nvalue = [2, 0]"] ;
233 -> 237 ;
238 [label="gini = 0.0\nsamples = 1\nvalue = [0, 1]"] ;
232 -> 238 ;
239 [label="X[3] <= 1.0\ngini = 0.328\nsamples = 29\nvalue = [6, 23]"] ;
217 -> 239 ;
240 [label="X[2] <= 0.5\ngini = 0.293\nsamples = 28\nvalue = [5, 23]"] ;
239 -> 240 ;
241 [label="X[6] <= 2.0\ngini = 0.33\nsamples = 24\nvalue = [5, 19]"] ;
240 -> 241 ;
242 [label="gini = 0.32\nsamples = 5\nvalue = [1, 4]"] ;
241 -> 242 ;
243 [label="gini = 0.332\nsamples = 19\nvalue = [4, 15]"] ;
241 -> 243 ;
244 [label="gini = 0.0\nsamples = 4\nvalue = [0, 4]"] ;
240 -> 244 ;
245 [label="gini = 0.0\nsamples = 1\nvalue = [1, 0]"] ;
239 -> 245 ;
246 [label="gini = 0.0\nsamples = 4\nvalue = [0, 4]"] ;
214 -> 246 ;
247 [label="X[5] <= 1.5\ngini = 0.397\nsamples = 22\nvalue = [16, 6]"] ;
181 -> 247 ;
248 [label="gini = 0.0\nsamples = 4\nvalue = [4, 0]"] ;
247 -> 248 ;
249 [label="X[3] <= 1.5\ngini = 0.444\nsamples = 18\nvalue = [12, 6]"] ;
247 -> 249 ;
250 [label="X[4] <= 0.5\ngini = 0.5\nsamples = 10\nvalue = [5, 5]"] ;
249 -> 250 ;
251 [label="X[2] <= 0.5\ngini = 0.469\nsamples = 8\nvalue = [3, 5]"] ;
250 -> 251 ;
252 [label="gini = 0.0\nsamples = 2\nvalue = [0, 2]"] ;
251 -> 252 ;
253 [label="X[3] <= 0.5\ngini = 0.5\nsamples = 6\nvalue = [3, 3]"] ;
251 -> 253 ;
254 [label="X[6] <= 4.5\ngini = 0.375\nsamples = 4\nvalue = [3, 1]"] ;
253 -> 254 ;
255 [label="gini = 0.5\nsamples = 2\nvalue = [1, 1]"] ;
254 -> 255 ;
256 [label="gini = 0.0\nsamples = 2\nvalue = [2, 0]"] ;
254 -> 256 ;
257 [label="gini = 0.0\nsamples = 2\nvalue = [0, 2]"] ;
253 -> 257 ;
258 [label="gini = 0.0\nsamples = 2\nvalue = [2, 0]"] ;
250 -> 258 ;
259 [label="X[3] <= 4.5\ngini = 0.219\nsamples = 8\nvalue = [7, 1]"] ;
249 -> 259 ;
260 [label="gini = 0.0\nsamples = 3\nvalue = [3, 0]"] ;
259 -> 260 ;
261 [label="X[2] <= 0.5\ngini = 0.32\nsamples = 5\nvalue = [4, 1]"] ;
259 -> 261 ;
262 [label="gini = 0.0\nsamples = 2\nvalue = [2, 0]"] ;
261 -> 262 ;
263 [label="X[3] <= 5.5\ngini = 0.444\nsamples = 3\nvalue = [2, 1]"] ;
261 -> 263 ;
264 [label="gini = 0.5\nsamples = 2\nvalue = [1, 1]"] ;
263 -> 264 ;
265 [label="gini = 0.0\nsamples = 1\nvalue = [1, 0]"] ;
263 -> 265 ;
266 [label="X[3] <= 0.5\ngini = 0.198\nsamples = 36\nvalue = [32, 4]"] ;
180 -> 266 ;
267 [label="gini = 0.0\nsamples = 1\nvalue = [0, 1]"] ;
266 -> 267 ;
268 [label="X[3] <= 1.5\ngini = 0.157\nsamples = 35\nvalue = [32, 3]"] ;
266 -> 268 ;
269 [label="gini = 0.0\nsamples = 14\nvalue = [14, 0]"] ;
268 -> 269 ;
270 [label="X[2] <= 4.5\ngini = 0.245\nsamples = 21\nvalue = [18, 3]"] ;
268 -> 270 ;
271 [label="X[2] <= 3.5\ngini = 0.355\nsamples = 13\nvalue = [10, 3]"] ;
270 -> 271 ;
272 [label="gini = 0.0\nsamples = 4\nvalue = [4, 0]"] ;
271 -> 272 ;
273 [label="X[6] <= 0.5\ngini = 0.444\nsamples = 9\nvalue = [6, 3]"] ;
271 -> 273 ;
274 [label="X[5] <= 2.0\ngini = 0.408\nsamples = 7\nvalue = [5, 2]"] ;
273 -> 274 ;
275 [label="gini = 0.375\nsamples = 4\nvalue = [3, 1]"] ;
274 -> 275 ;
276 [label="gini = 0.444\nsamples = 3\nvalue = [2, 1]"] ;
274 -> 276 ;
277 [label="gini = 0.5\nsamples = 2\nvalue = [1, 1]"] ;
273 -> 277 ;
278 [label="gini = 0.0\nsamples = 8\nvalue = [8, 0]"] ;
270 -> 278 ;
}
